<?xml version="1.0"?>
<opencv_storage>
<cascade>
  <stageType>BOOST</stageType>
  <featureType>HAAR</featureType>
  <height>25</height>
  <width>25</width>
  <stageParams>
    <boostType>GAB</boostType>
    <minHitRate>9.9900001287460327e-001</minHitRate>
    <maxFalseAlarm>5.0000000000000000e-001</maxFalseAlarm>
    <weightTrimRate>9.4999999999999996e-001</weightTrimRate>
    <maxDepth>1</maxDepth>
    <maxWeakCount>100</maxWeakCount></stageParams>
  <featureParams>
    <maxCatCount>0</maxCatCount>
    <featSize>1</featSize>
    <mode>ALL</mode></featureParams>
  <stageNum>11</stageNum>
  <stages>
    <!-- stage 0 -->
    <_>
      <maxWeakCount>3</maxWeakCount>
      <stageThreshold>-1.2673529386520386e+000</stageThreshold>
      <weakClassifiers>
        <_>
          <internalNodes>
            0 -1 5 5.1701235771179199e-001</internalNodes>
          <leafValues>
            -9.9333113431930542e-001 9.7802197933197021e-001</leafValues></_>
        <_>
          <internalNodes>
            0 -1 13 1.3054373860359192e-001</internalNodes>
          <leafValues>
            -9.8358386754989624e-001 8.9748936891555786e-001</leafValues></_>
        <_>
          <internalNodes>
            0 -1 17 9.1442145407199860e-002</internalNodes>
          <leafValues>
            -9.8296290636062622e-001 7.0956206321716309e-001</leafValues></_></weakClassifiers></_>
    <!-- stage 1 -->
    <_>
      <maxWeakCount>3</maxWeakCount>
      <stageThreshold>-1.4788292646408081e+000</stageThreshold>
      <weakClassifiers>
        <_>
          <internalNodes>
            0 -1 3 8.7620747089385986e-001</internalNodes>
          <leafValues>
            -8.8617342710494995e-001 6.3869696855545044e-001</leafValues></_>
        <_>
          <internalNodes>
            0 -1 29 7.5389258563518524e-002</internalNodes>
          <leafValues>
            -9.0134400129318237e-001 4.7558134794235229e-001</leafValues></_>
        <_>
          <internalNodes>
            0 -1 55 -4.2045526206493378e-002</internalNodes>
          <leafValues>
            3.0868819355964661e-001 -9.3886351585388184e-001</leafValues></_></weakClassifiers></_>
    <!-- stage 2 -->
    <_>
      <maxWeakCount>3</maxWeakCount>
      <stageThreshold>-1.3220809698104858e+000</stageThreshold>
      <weakClassifiers>
        <_>
          <internalNodes>
            0 -1 41 -2.9231447726488113e-002</internalNodes>
          <leafValues>
            4.2281877994537354e-001 -8.9173787832260132e-001</leafValues></_>
        <_>
          <internalNodes>
            0 -1 3 8.5710489749908447e-001</internalNodes>
          <leafValues>
            -8.2234650850296021e-001 6.4199900627136230e-001</leafValues></_>
        <_>
          <internalNodes>
            0 -1 50 1.1350192129611969e-002</internalNodes>
          <leafValues>
            -8.7292146682739258e-001 3.9200341701507568e-001</leafValues></_></weakClassifiers></_>
    <!-- stage 3 -->
    <_>
      <maxWeakCount>5</maxWeakCount>
      <stageThreshold>-1.8454079627990723e+000</stageThreshold>
      <weakClassifiers>
        <_>
          <internalNodes>
            0 -1 7 6.5601336956024170e-001</internalNodes>
          <leafValues>
            -8.9878094196319580e-001 3.3488011360168457e-001</leafValues></_>
        <_>
          <internalNodes>
            0 -1 36 3.0742978677153587e-002</internalNodes>
          <leafValues>
            -8.2021564245223999e-001 3.5013881325721741e-001</leafValues></_>
        <_>
          <internalNodes>
            0 -1 16 3.1831324100494385e-001</internalNodes>
          <leafValues>
            -8.7459623813629150e-001 3.3258140087127686e-001</leafValues></_>
        <_>
          <internalNodes>
            0 -1 26 3.5446710884571075e-002</internalNodes>
          <leafValues>
            -7.4441844224929810e-001 4.1423812508583069e-001</leafValues></_>
        <_>
          <internalNodes>
            0 -1 28 8.4316983819007874e-002</internalNodes>
          <leafValues>
            -8.3640772104263306e-001 3.6172512173652649e-001</leafValues></_></weakClassifiers></_>
    <!-- stage 4 -->
    <_>
      <maxWeakCount>6</maxWeakCount>
      <stageThreshold>-1.8064327239990234e+000</stageThreshold>
      <weakClassifiers>
        <_>
          <internalNodes>
            0 -1 14 9.5659174025058746e-002</internalNodes>
          <leafValues>
            -9.3791788816452026e-001 -1.8887722864747047e-002</leafValues></_>
        <_>
          <internalNodes>
            0 -1 44 1.2000723741948605e-002</internalNodes>
          <leafValues>
            -8.6154341697692871e-001 1.9700278341770172e-001</leafValues></_>
        <_>
          <internalNodes>
            0 -1 37 -2.1813999861478806e-002</internalNodes>
          <leafValues>
            3.5278734564781189e-001 -6.8069916963577271e-001</leafValues></_>
        <_>
          <internalNodes>
            0 -1 4 6.7225885391235352e-001</internalNodes>
          <leafValues>
            -6.9355481863021851e-001 5.0492548942565918e-001</leafValues></_>
        <_>
          <internalNodes>
            0 -1 42 -1.7640605801716447e-003</internalNodes>
          <leafValues>
            -8.4128659963607788e-001 2.9024699330329895e-001</leafValues></_>
        <_>
          <internalNodes>
            0 -1 8 -3.4495408181101084e-004</internalNodes>
          <leafValues>
            -9.6930968761444092e-001 2.3099274933338165e-001</leafValues></_></weakClassifiers></_>
    <!-- stage 5 -->
    <_>
      <maxWeakCount>9</maxWeakCount>
      <stageThreshold>-2.3299646377563477e+000</stageThreshold>
      <weakClassifiers>
        <_>
          <internalNodes>
            0 -1 49 -9.8821623250842094e-003</internalNodes>
          <leafValues>
            2.8066039085388184e-001 -7.1002537012100220e-001</leafValues></_>
        <_>
          <internalNodes>
            0 -1 10 6.3959348201751709e-001</internalNodes>
          <leafValues>
            -6.8484151363372803e-001 3.5188671946525574e-001</leafValues></_>
        <_>
          <internalNodes>
            0 -1 80 -8.8983809109777212e-004</internalNodes>
          <leafValues>
            -9.1094923019409180e-001 2.8275316953659058e-001</leafValues></_>
        <_>
          <internalNodes>
            0 -1 73 -1.2310709280427545e-005</internalNodes>
          <leafValues>
            -9.4690436124801636e-001 2.7560555934906006e-001</leafValues></_>
        <_>
          <internalNodes>
            0 -1 60 -2.1236579865217209e-002</internalNodes>
          <leafValues>
            4.1445973515510559e-001 -5.8883559703826904e-001</leafValues></_>
        <_>
          <internalNodes>
            0 -1 21 6.3405275344848633e-002</internalNodes>
          <leafValues>
            -5.1061421632766724e-001 4.5473957061767578e-001</leafValues></_>
        <_>
          <internalNodes>
            0 -1 22 2.1981371566653252e-002</internalNodes>
          <leafValues>
            -8.2563984394073486e-001 2.9596108198165894e-001</leafValues></_>
        <_>
          <internalNodes>
            0 -1 25 -2.8182865207782015e-005</internalNodes>
          <leafValues>
            -7.5234800577163696e-001 2.8534427285194397e-001</leafValues></_>
        <_>
          <internalNodes>
            0 -1 18 -9.4704491857555695e-006</internalNodes>
          <leafValues>
            -8.4439015388488770e-001 2.4816186726093292e-001</leafValues></_></weakClassifiers></_>
    <!-- stage 6 -->
    <_>
      <maxWeakCount>10</maxWeakCount>
      <stageThreshold>-2.3956925868988037e+000</stageThreshold>
      <weakClassifiers>
        <_>
          <internalNodes>
            0 -1 63 7.7492102980613708e-002</internalNodes>
          <leafValues>
            -6.8665850162506104e-001 3.3333334326744080e-001</leafValues></_>
        <_>
          <internalNodes>
            0 -1 58 -1.0751795023679733e-002</internalNodes>
          <leafValues>
            3.2626196742057800e-001 -6.7332279682159424e-001</leafValues></_>
        <_>
          <internalNodes>
            0 -1 12 4.8652970790863037e-001</internalNodes>
          <leafValues>
            -6.8663984537124634e-001 3.4153011441230774e-001</leafValues></_>
        <_>
          <internalNodes>
            0 -1 79 -1.0074458259623498e-004</internalNodes>
          <leafValues>
            -9.1985678672790527e-001 2.2482502460479736e-001</leafValues></_>
        <_>
          <internalNodes>
            0 -1 51 6.3188105821609497e-002</internalNodes>
          <leafValues>
            -8.7297976016998291e-001 2.6468217372894287e-001</leafValues></_>
        <_>
          <internalNodes>
            0 -1 66 3.7085794610902667e-004</internalNodes>
          <leafValues>
            1.6901239752769470e-001 -9.0472006797790527e-001</leafValues></_>
        <_>
          <internalNodes>
            0 -1 77 -6.2360952142626047e-004</internalNodes>
          <leafValues>
            -9.3908244371414185e-001 1.8812339007854462e-001</leafValues></_>
        <_>
          <internalNodes>
            0 -1 1 -1.3905520609114319e-004</internalNodes>
          <leafValues>
            -8.4306770563125610e-001 1.9714662432670593e-001</leafValues></_>
        <_>
          <internalNodes>
            0 -1 70 -1.0858209861908108e-005</internalNodes>
          <leafValues>
            -7.6947766542434692e-001 2.2708694636821747e-001</leafValues></_>
        <_>
          <internalNodes>
            0 -1 53 -2.5245638098567724e-003</internalNodes>
          <leafValues>
            5.6192785501480103e-001 -3.6982545256614685e-001</leafValues></_></weakClassifiers></_>
    <!-- stage 7 -->
    <_>
      <maxWeakCount>11</maxWeakCount>
      <stageThreshold>-2.3377869129180908e+000</stageThreshold>
      <weakClassifiers>
        <_>
          <internalNodes>
            0 -1 59 1.8472932279109955e-002</internalNodes>
          <leafValues>
            -6.9754254817962646e-001 2.5907990336418152e-001</leafValues></_>
        <_>
          <internalNodes>
            0 -1 40 -6.9094739854335785e-002</internalNodes>
          <leafValues>
            1.8747052550315857e-001 -8.9165073633193970e-001</leafValues></_>
        <_>
          <internalNodes>
            0 -1 24 -1.0110402399732266e-005</internalNodes>
          <leafValues>
            -6.9514566659927368e-001 2.4385252594947815e-001</leafValues></_>
        <_>
          <internalNodes>
            0 -1 9 -5.6495417084079236e-005</internalNodes>
          <leafValues>
            -9.0006697177886963e-001 2.2590847313404083e-001</leafValues></_>
        <_>
          <internalNodes>
            0 -1 48 -7.1834726259112358e-003</internalNodes>
          <leafValues>
            5.0549197196960449e-001 -4.3001160025596619e-001</leafValues></_>
        <_>
          <internalNodes>
            0 -1 30 -4.5571007649414241e-004</internalNodes>
          <leafValues>
            -8.4790307283401489e-001 2.8604352474212646e-001</leafValues></_>
        <_>
          <internalNodes>
            0 -1 35 -9.6382946139783598e-006</internalNodes>
          <leafValues>
            -7.4532026052474976e-001 2.4734932184219360e-001</leafValues></_>
        <_>
          <internalNodes>
            0 -1 61 -8.4841288626194000e-003</internalNodes>
          <leafValues>
            2.8671881556510925e-001 -6.7597788572311401e-001</leafValues></_>
        <_>
          <internalNodes>
            0 -1 31 7.2772890329360962e-002</internalNodes>
          <leafValues>
            -8.7546348571777344e-001 2.1829129755496979e-001</leafValues></_>
        <_>
          <internalNodes>
            0 -1 20 3.0339635908603668e-002</internalNodes>
          <leafValues>
            -9.8040348291397095e-001 1.6278997063636780e-001</leafValues></_>
        <_>
          <internalNodes>
            0 -1 82 -2.3615623358637094e-003</internalNodes>
          <leafValues>
            -9.6010106801986694e-001 1.0038308054208755e-001</leafValues></_></weakClassifiers></_>
    <!-- stage 8 -->
    <_>
      <maxWeakCount>10</maxWeakCount>
      <stageThreshold>-2.3471558094024658e+000</stageThreshold>
      <weakClassifiers>
        <_>
          <internalNodes>
            0 -1 63 6.7540027201175690e-002</internalNodes>
          <leafValues>
            -7.1658098697662354e-001 2.5900900363922119e-001</leafValues></_>
        <_>
          <internalNodes>
            0 -1 83 -2.8309540357440710e-003</internalNodes>
          <leafValues>
            -8.9258015155792236e-001 1.5194794535636902e-001</leafValues></_>
        <_>
          <internalNodes>
            0 -1 39 -8.9988159015774727e-004</internalNodes>
          <leafValues>
            -8.5296416282653809e-001 1.8192924559116364e-001</leafValues></_>
        <_>
          <internalNodes>
            0 -1 19 1.4428634312935174e-004</internalNodes>
          <leafValues>
            2.2839318215847015e-001 -8.5925590991973877e-001</leafValues></_>
        <_>
          <internalNodes>
            0 -1 62 -5.1005288958549500e-002</internalNodes>
          <leafValues>
            3.6149621009826660e-001 -5.3309708833694458e-001</leafValues></_>
        <_>
          <internalNodes>
            0 -1 47 -8.2702994346618652e-002</internalNodes>
          <leafValues>
            2.0673547685146332e-001 -8.9605337381362915e-001</leafValues></_>
        <_>
          <internalNodes>
            0 -1 38 -3.8246338954195380e-004</internalNodes>
          <leafValues>
            -8.7812179327011108e-001 1.6855184733867645e-001</leafValues></_>
        <_>
          <internalNodes>
            0 -1 52 -1.7478419467806816e-003</internalNodes>
          <leafValues>
            6.2686169147491455e-001 -3.2368624210357666e-001</leafValues></_>
        <_>
          <internalNodes>
            0 -1 33 -7.4967443943023682e-003</internalNodes>
          <leafValues>
            2.9911637306213379e-001 -6.9959831237792969e-001</leafValues></_>
        <_>
          <internalNodes>
            0 -1 6 -1.5985884238034487e-004</internalNodes>
          <leafValues>
            -9.2539632320404053e-001 1.7997229099273682e-001</leafValues></_></weakClassifiers></_>
    <!-- stage 9 -->
    <_>
      <maxWeakCount>14</maxWeakCount>
      <stageThreshold>-2.4613473415374756e+000</stageThreshold>
      <weakClassifiers>
        <_>
          <internalNodes>
            0 -1 56 -1.4017309993505478e-002</internalNodes>
          <leafValues>
            2.8991061449050903e-001 -6.9225984811782837e-001</leafValues></_>
        <_>
          <internalNodes>
            0 -1 68 -1.9848207011818886e-003</internalNodes>
          <leafValues>
            -8.7258970737457275e-001 1.3022249937057495e-001</leafValues></_>
        <_>
          <internalNodes>
            0 -1 72 5.0488466513343155e-005</internalNodes>
          <leafValues>
            2.0493860542774200e-001 -8.5961633920669556e-001</leafValues></_>
        <_>
          <internalNodes>
            0 -1 0 -2.6844167150557041e-003</internalNodes>
          <leafValues>
            -8.0193173885345459e-001 1.7996895313262939e-001</leafValues></_>
        <_>
          <internalNodes>
            0 -1 65 -1.4326043892651796e-003</internalNodes>
          <leafValues>
            3.7129840254783630e-001 -5.0567042827606201e-001</leafValues></_>
        <_>
          <internalNodes>
            0 -1 32 8.8314346969127655e-002</internalNodes>
          <leafValues>
            -6.6361784934997559e-001 2.4503649771213531e-001</leafValues></_>
        <_>
          <internalNodes>
            0 -1 46 4.8565145581960678e-002</internalNodes>
          <leafValues>
            -6.7582058906555176e-001 2.6598051190376282e-001</leafValues></_>
        <_>
          <internalNodes>
            0 -1 81 -9.9485687314881943e-006</internalNodes>
          <leafValues>
            -8.5022020339965820e-001 1.7435406148433685e-001</leafValues></_>
        <_>
          <internalNodes>
            0 -1 57 -3.8280209992080927e-003</internalNodes>
          <leafValues>
            6.9608980417251587e-001 -2.5380295515060425e-001</leafValues></_>
        <_>
          <internalNodes>
            0 -1 27 5.2759598474949598e-005</internalNodes>
          <leafValues>
            2.2343553602695465e-001 -7.8991383314132690e-001</leafValues></_>
        <_>
          <internalNodes>
            0 -1 11 2.1787737496197224e-003</internalNodes>
          <leafValues>
            2.4872834980487823e-001 -6.1792099475860596e-001</leafValues></_>
        <_>
          <internalNodes>
            0 -1 34 1.6138467472046614e-003</internalNodes>
          <leafValues>
            1.8588779866695404e-001 -7.5292503833770752e-001</leafValues></_>
        <_>
          <internalNodes>
            0 -1 23 -5.1704430952668190e-003</internalNodes>
          <leafValues>
            -8.3960831165313721e-001 1.7853565514087677e-001</leafValues></_>
        <_>
          <internalNodes>
            0 -1 71 1.6333130188286304e-003</internalNodes>
          <leafValues>
            -7.9633551836013794e-001 1.4466890692710876e-001</leafValues></_></weakClassifiers></_>
    <!-- stage 10 -->
    <_>
      <maxWeakCount>13</maxWeakCount>
      <stageThreshold>-2.1784422397613525e+000</stageThreshold>
      <weakClassifiers>
        <_>
          <internalNodes>
            0 -1 45 -7.7016344293951988e-003</internalNodes>
          <leafValues>
            1.9076548516750336e-001 -6.7894238233566284e-001</leafValues></_>
        <_>
          <internalNodes>
            0 -1 54 -1.1721496775862761e-005</internalNodes>
          <leafValues>
            -8.6714279651641846e-001 1.1034873872995377e-001</leafValues></_>
        <_>
          <internalNodes>
            0 -1 43 1.8076524138450623e-002</internalNodes>
          <leafValues>
            -8.4351205825805664e-001 1.5965384244918823e-001</leafValues></_>
        <_>
          <internalNodes>
            0 -1 78 5.6228385801659897e-005</internalNodes>
          <leafValues>
            2.0603196322917938e-001 -7.2636818885803223e-001</leafValues></_>
        <_>
          <internalNodes>
            0 -1 67 8.5575411503668875e-005</internalNodes>
          <leafValues>
            2.1369595825672150e-001 -8.3526712656021118e-001</leafValues></_>
        <_>
          <internalNodes>
            0 -1 75 -1.6374117694795132e-003</internalNodes>
          <leafValues>
            -8.0864793062210083e-001 1.6462145745754242e-001</leafValues></_>
        <_>
          <internalNodes>
            0 -1 2 3.1374476850032806e-002</internalNodes>
          <leafValues>
            -8.8327896595001221e-001 1.3915538787841797e-001</leafValues></_>
        <_>
          <internalNodes>
            0 -1 76 -4.5084122568368912e-002</internalNodes>
          <leafValues>
            1.4105968177318573e-001 -8.9057290554046631e-001</leafValues></_>
        <_>
          <internalNodes>
            0 -1 64 -9.7532152722124010e-005</internalNodes>
          <leafValues>
            3.9338278770446777e-001 -4.1828364133834839e-001</leafValues></_>
        <_>
          <internalNodes>
            0 -1 74 -2.5058267638087273e-003</internalNodes>
          <leafValues>
            2.8561952710151672e-001 -5.7082206010818481e-001</leafValues></_>
        <_>
          <internalNodes>
            0 -1 69 1.8641980204847641e-005</internalNodes>
          <leafValues>
            1.8304064869880676e-001 -7.7057480812072754e-001</leafValues></_>
        <_>
          <internalNodes>
            0 -1 40 -6.0201562941074371e-002</internalNodes>
          <leafValues>
            1.4131850004196167e-001 -8.2107836008071899e-001</leafValues></_>
        <_>
          <internalNodes>
            0 -1 15 3.8953986018896103e-002</internalNodes>
          <leafValues>
            -5.4196619987487793e-001 2.3412579298019409e-001</leafValues></_></weakClassifiers></_></stages>
  <features>
    <_>
      <rects>
        <_>
          0 0 4 15 -1.</_>
        <_>
          0 5 4 5 3.</_></rects>
      <tilted>0</tilted></_>
    <_>
      <rects>
        <_>
          0 0 20 2 -1.</_>
        <_>
          10 0 10 2 2.</_></rects>
      <tilted>0</tilted></_>
    <_>
      <rects>
        <_>
          0 0 13 21 -1.</_>
        <_>
          0 7 13 7 3.</_></rects>
      <tilted>0</tilted></_>
    <_>
      <rects>
        <_>
          0 1 24 18 -1.</_>
        <_>
          8 7 8 6 9.</_></rects>
      <tilted>0</tilted></_>
    <_>
      <rects>
        <_>
          0 1 24 19 -1.</_>
        <_>
          8 1 8 19 3.</_></rects>
      <tilted>0</tilted></_>
    <_>
      <rects>
        <_>
          0 2 24 17 -1.</_>
        <_>
          8 2 8 17 3.</_></rects>
      <tilted>0</tilted></_>
    <_>
      <rects>
        <_>
          0 4 8 6 -1.</_>
        <_>
          0 4 4 3 2.</_>
        <_>
          4 7 4 3 2.</_></rects>
      <tilted>0</tilted></_>
    <_>
      <rects>
        <_>
          0 4 24 17 -1.</_>
        <_>
          8 4 8 17 3.</_></rects>
      <tilted>0</tilted></_>
    <_>
      <rects>
        <_>
          0 5 7 6 -1.</_>
        <_>
          0 8 7 3 2.</_></rects>
      <tilted>0</tilted></_>
    <_>
      <rects>
        <_>
          0 5 8 2 -1.</_>
        <_>
          0 6 8 1 2.</_></rects>
      <tilted>0</tilted></_>
    <_>
      <rects>
        <_>
          0 5 24 16 -1.</_>
        <_>
          8 5 8 16 3.</_></rects>
      <tilted>0</tilted></_>
    <_>
      <rects>
        <_>
          0 6 8 12 -1.</_>
        <_>
          0 6 4 6 2.</_>
        <_>
          4 12 4 6 2.</_></rects>
      <tilted>0</tilted></_>
    <_>
      <rects>
        <_>
          0 13 24 12 -1.</_>
        <_>
          8 17 8 4 9.</_></rects>
      <tilted>0</tilted></_>
    <_>
      <rects>
        <_>
          0 14 24 4 -1.</_>
        <_>
          8 14 8 4 3.</_></rects>
      <tilted>0</tilted></_>
    <_>
      <rects>
        <_>
          1 0 20 14 -1.</_>
        <_>
          1 7 20 7 2.</_></rects>
      <tilted>0</tilted></_>
    <_>
      <rects>
        <_>
          1 4 18 12 -1.</_>
        <_>
          1 7 18 6 2.</_></rects>
      <tilted>0</tilted></_>
    <_>
      <rects>
        <_>
          1 7 24 14 -1.</_>
        <_>
          7 7 12 14 2.</_></rects>
      <tilted>0</tilted></_>
    <_>
      <rects>
        <_>
          1 14 24 3 -1.</_>
        <_>
          9 14 8 3 3.</_></rects>
      <tilted>0</tilted></_>
    <_>
      <rects>
        <_>
          2 0 2 1 -1.</_>
        <_>
          3 0 1 1 2.</_></rects>
      <tilted>0</tilted></_>
    <_>
      <rects>
        <_>
          2 0 6 8 -1.</_>
        <_>
          4 0 2 8 3.</_></rects>
      <tilted>0</tilted></_>
    <_>
      <rects>
        <_>
          2 2 17 18 -1.</_>
        <_>
          2 8 17 6 3.</_></rects>
      <tilted>0</tilted></_>
    <_>
      <rects>
        <_>
          2 3 21 2 -1.</_>
        <_>
          9 3 7 2 3.</_></rects>
      <tilted>0</tilted></_>
    <_>
      <rects>
        <_>
          2 4 16 8 -1.</_>
        <_>
          2 8 16 4 2.</_></rects>
      <tilted>0</tilted></_>
    <_>
      <rects>
        <_>
          2 24 20 1 -1.</_>
        <_>
          12 24 10 1 2.</_></rects>
      <tilted>0</tilted></_>
    <_>
      <rects>
        <_>
          3 3 1 3 -1.</_>
        <_>
          2 4 1 1 3.</_></rects>
      <tilted>1</tilted></_>
    <_>
      <rects>
        <_>
          4 0 1 4 -1.</_>
        <_>
          3 1 1 2 2.</_></rects>
      <tilted>1</tilted></_>
    <_>
      <rects>
        <_>
          4 4 15 12 -1.</_>
        <_>
          4 7 15 6 2.</_></rects>
      <tilted>0</tilted></_>
    <_>
      <rects>
        <_>
          4 18 2 4 -1.</_>
        <_>
          4 18 1 4 2.</_></rects>
      <tilted>1</tilted></_>
    <_>
      <rects>
        <_>
          5 0 15 8 -1.</_>
        <_>
          10 0 5 8 3.</_></rects>
      <tilted>0</tilted></_>
    <_>
      <rects>
        <_>
          5 0 13 12 -1.</_>
        <_>
          5 6 13 6 2.</_></rects>
      <tilted>0</tilted></_>
    <_>
      <rects>
        <_>
          5 1 2 4 -1.</_>
        <_>
          4 2 2 2 2.</_></rects>
      <tilted>1</tilted></_>
    <_>
      <rects>
        <_>
          5 1 15 7 -1.</_>
        <_>
          10 1 5 7 3.</_></rects>
      <tilted>0</tilted></_>
    <_>
      <rects>
        <_>
          5 2 15 6 -1.</_>
        <_>
          10 2 5 6 3.</_></rects>
      <tilted>0</tilted></_>
    <_>
      <rects>
        <_>
          5 19 7 6 -1.</_>
        <_>
          5 22 7 3 2.</_></rects>
      <tilted>0</tilted></_>
    <_>
      <rects>
        <_>
          5 24 16 1 -1.</_>
        <_>
          13 24 8 1 2.</_></rects>
      <tilted>0</tilted></_>
    <_>
      <rects>
        <_>
          6 2 1 2 -1.</_>
        <_>
          6 2 1 1 2.</_></rects>
      <tilted>1</tilted></_>
    <_>
      <rects>
        <_>
          6 13 11 12 -1.</_>
        <_>
          6 16 11 6 2.</_></rects>
      <tilted>0</tilted></_>
    <_>
      <rects>
        <_>
          6 19 8 6 -1.</_>
        <_>
          6 22 8 3 2.</_></rects>
      <tilted>0</tilted></_>
    <_>
      <rects>
        <_>
          7 0 1 4 -1.</_>
        <_>
          6 1 1 2 2.</_></rects>
      <tilted>1</tilted></_>
    <_>
      <rects>
        <_>
          7 2 2 4 -1.</_>
        <_>
          6 3 2 2 2.</_></rects>
      <tilted>1</tilted></_>
    <_>
      <rects>
        <_>
          7 9 8 7 -1.</_>
        <_>
          7 9 4 7 2.</_></rects>
      <tilted>1</tilted></_>
    <_>
      <rects>
        <_>
          7 19 9 6 -1.</_>
        <_>
          7 22 9 3 2.</_></rects>
      <tilted>0</tilted></_>
    <_>
      <rects>
        <_>
          8 0 2 8 -1.</_>
        <_>
          6 2 2 4 2.</_></rects>
      <tilted>1</tilted></_>
    <_>
      <rects>
        <_>
          8 0 9 7 -1.</_>
        <_>
          11 0 3 7 3.</_></rects>
      <tilted>0</tilted></_>
    <_>
      <rects>
        <_>
          8 0 7 6 -1.</_>
        <_>
          8 3 7 3 2.</_></rects>
      <tilted>0</tilted></_>
    <_>
      <rects>
        <_>
          8 17 4 6 -1.</_>
        <_>
          10 17 2 6 2.</_></rects>
      <tilted>0</tilted></_>
    <_>
      <rects>
        <_>
          9 4 7 21 -1.</_>
        <_>
          9 11 7 7 3.</_></rects>
      <tilted>0</tilted></_>
    <_>
      <rects>
        <_>
          9 14 16 5 -1.</_>
        <_>
          17 14 8 5 2.</_></rects>
      <tilted>0</tilted></_>
    <_>
      <rects>
        <_>
          9 16 6 8 -1.</_>
        <_>
          11 16 2 8 3.</_></rects>
      <tilted>0</tilted></_>
    <_>
      <rects>
        <_>
          9 18 6 5 -1.</_>
        <_>
          11 18 2 5 3.</_></rects>
      <tilted>0</tilted></_>
    <_>
      <rects>
        <_>
          10 0 14 6 -1.</_>
        <_>
          10 3 14 3 2.</_></rects>
      <tilted>0</tilted></_>
    <_>
      <rects>
        <_>
          10 0 15 21 -1.</_>
        <_>
          10 7 15 7 3.</_></rects>
      <tilted>0</tilted></_>
    <_>
      <rects>
        <_>
          10 7 2 5 -1.</_>
        <_>
          11 7 1 5 2.</_></rects>
      <tilted>0</tilted></_>
    <_>
      <rects>
        <_>
          10 13 4 10 -1.</_>
        <_>
          11 13 2 10 2.</_></rects>
      <tilted>0</tilted></_>
    <_>
      <rects>
        <_>
          10 22 2 1 -1.</_>
        <_>
          10 22 1 1 2.</_></rects>
      <tilted>1</tilted></_>
    <_>
      <rects>
        <_>
          11 0 10 8 -1.</_>
        <_>
          16 0 5 8 2.</_></rects>
      <tilted>0</tilted></_>
    <_>
      <rects>
        <_>
          11 8 4 9 -1.</_>
        <_>
          12 9 2 9 2.</_></rects>
      <tilted>1</tilted></_>
    <_>
      <rects>
        <_>
          11 10 3 3 -1.</_>
        <_>
          12 10 1 3 3.</_></rects>
      <tilted>0</tilted></_>
    <_>
      <rects>
        <_>
          12 0 4 7 -1.</_>
        <_>
          14 0 2 7 2.</_></rects>
      <tilted>0</tilted></_>
    <_>
      <rects>
        <_>
          12 0 6 4 -1.</_>
        <_>
          11 1 6 2 2.</_></rects>
      <tilted>1</tilted></_>
    <_>
      <rects>
        <_>
          12 19 8 6 -1.</_>
        <_>
          12 22 8 3 2.</_></rects>
      <tilted>0</tilted></_>
    <_>
      <rects>
        <_>
          13 19 4 6 -1.</_>
        <_>
          13 22 4 3 2.</_></rects>
      <tilted>0</tilted></_>
    <_>
      <rects>
        <_>
          14 0 11 4 -1.</_>
        <_>
          14 0 11 2 2.</_></rects>
      <tilted>1</tilted></_>
    <_>
      <rects>
        <_>
          14 8 6 10 -1.</_>
        <_>
          16 10 2 10 3.</_></rects>
      <tilted>1</tilted></_>
    <_>
      <rects>
        <_>
          15 3 4 9 -1.</_>
        <_>
          16 4 2 9 2.</_></rects>
      <tilted>1</tilted></_>
    <_>
      <rects>
        <_>
          15 11 3 9 -1.</_>
        <_>
          15 14 3 3 3.</_></rects>
      <tilted>0</tilted></_>
    <_>
      <rects>
        <_>
          16 0 6 7 -1.</_>
        <_>
          18 0 2 7 3.</_></rects>
      <tilted>0</tilted></_>
    <_>
      <rects>
        <_>
          16 0 8 7 -1.</_>
        <_>
          18 0 4 7 2.</_></rects>
      <tilted>0</tilted></_>
    <_>
      <rects>
        <_>
          16 0 9 1 -1.</_>
        <_>
          19 3 3 1 3.</_></rects>
      <tilted>1</tilted></_>
    <_>
      <rects>
        <_>
          16 3 6 6 -1.</_>
        <_>
          18 5 2 2 9.</_></rects>
      <tilted>0</tilted></_>
    <_>
      <rects>
        <_>
          16 22 1 2 -1.</_>
        <_>
          16 22 1 1 2.</_></rects>
      <tilted>1</tilted></_>
    <_>
      <rects>
        <_>
          17 0 3 18 -1.</_>
        <_>
          17 9 3 9 2.</_></rects>
      <tilted>0</tilted></_>
    <_>
      <rects>
        <_>
          17 1 6 9 -1.</_>
        <_>
          19 4 2 3 9.</_></rects>
      <tilted>0</tilted></_>
    <_>
      <rects>
        <_>
          17 4 8 6 -1.</_>
        <_>
          17 7 8 3 2.</_></rects>
      <tilted>0</tilted></_>
    <_>
      <rects>
        <_>
          17 9 8 16 -1.</_>
        <_>
          17 17 8 8 2.</_></rects>
      <tilted>0</tilted></_>
    <_>
      <rects>
        <_>
          18 2 6 2 -1.</_>
        <_>
          20 4 2 2 3.</_></rects>
      <tilted>1</tilted></_>
    <_>
      <rects>
        <_>
          18 9 7 8 -1.</_>
        <_>
          18 9 7 4 2.</_></rects>
      <tilted>1</tilted></_>
    <_>
      <rects>
        <_>
          19 0 3 2 -1.</_>
        <_>
          20 1 1 2 3.</_></rects>
      <tilted>1</tilted></_>
    <_>
      <rects>
        <_>
          19 0 6 6 -1.</_>
        <_>
          22 0 3 6 2.</_></rects>
      <tilted>0</tilted></_>
    <_>
      <rects>
        <_>
          19 4 6 2 -1.</_>
        <_>
          19 4 3 2 2.</_></rects>
      <tilted>1</tilted></_>
    <_>
      <rects>
        <_>
          20 1 4 4 -1.</_>
        <_>
          21 2 2 4 2.</_></rects>
      <tilted>1</tilted></_>
    <_>
      <rects>
        <_>
          21 17 2 1 -1.</_>
        <_>
          21 17 1 1 2.</_></rects>
      <tilted>1</tilted></_>
    <_>
      <rects>
        <_>
          22 2 3 9 -1.</_>
        <_>
          22 5 3 3 3.</_></rects>
      <tilted>0</tilted></_>
    <_>
      <rects>
        <_>
          22 7 3 15 -1.</_>
        <_>
          22 12 3 5 3.</_></rects>
      <tilted>0</tilted></_></features></cascade>
</opencv_storage>
